0.0021977,-0.0014254,0.00073405,-0.0042203,0.0026862,0.0094854,-0.0019145,-0.0056663,0.0004915,-0.0016239,-0.0047293,0.0073713,-0.0017947,-0.0029639,0.0005163,0.0053818,0.0031051,0.0066911,0.0030129,0.00046663,-0.00065214,0.0071291,0.006611,-0.0024473,0.0094242,0.0052325,0.0064208,0.0041399,-8.9735e-05,0.00069587,-0.0024569,0.0043896,0.0015254,-0.0031307,0.004743,0.010537,0.0034734,-0.002597,-0.004149,0.0050358,0.011012,0.0089467,0.0050306,0.00092141,0.00023034,-0.0029338,0.00033236,0.0058878,-0.0062278,-0.0025261,0.0025492,0.00065886,0.0049574,0.0020416,-0.0010199,0.001575,-0.0034933,-0.00015803,-0.0005907,0.0032676,-0.0054035,0.005846,0.00089468,-0.0003076,0.0051824,0.0016107,-0.0029364,0.0022265,-0.00055489,-0.0045937,-0.0005484,0.0011212,0.0087583,0.0086017,0.0054394,0.0042574,-0.0028103,0.00098989,-0.0041028,-0.00037443,-0.0045858,4.7168e-05,0.0080055,0.0033522,-0.0012934,-0.0044428,0.0079434,0.0040006,0.0022206,-0.0028927,0.00021546,0.0032476,0.0018002,0.0036385,0.0096635,0.00072804,0.00065068,0.0018838,0.0069948,0.0036928
